<?xml version="1.0"?>
<opencv_storage>
<cascade>
  <stageType>BOOST</stageType>
  <featureType>LBP</featureType>
  <height>40</height>
  <width>40</width>
  <stageParams>
    <boostType>GAB</boostType>
    <minHitRate>9.9900001287460327e-01</minHitRate>
    <maxFalseAlarm>5.0000000000000000e-01</maxFalseAlarm>
    <weightTrimRate>9.4999999999999996e-01</weightTrimRate>
    <maxDepth>1</maxDepth>
    <maxWeakCount>100</maxWeakCount></stageParams>
  <featureParams>
    <maxCatCount>256</maxCatCount>
    <featSize>1</featSize></featureParams>
  <stageNum>33</stageNum>
  <stages>
    <!-- stage 0 -->
    <_>
      <maxWeakCount>4</maxWeakCount>
      <stageThreshold>-1.4949282407760620e+00</stageThreshold>
      <weakClassifiers>
        <_>
          <internalNodes>
            0 -1 77 -648282113 -244101034 491115869 2097484101
            1781834727 1073778960 1169568 88278189</internalNodes>
          <leafValues>
            -9.2035400867462158e-01 7.1080142259597778e-01</leafValues></_>
        <_>
          <internalNodes>
            0 -1 43 1784402431 -331198030 269740446 -398409708
            2047451643 -998242158 146987472 1208598564</internalNodes>
          <leafValues>
            -7.8733426332473755e-01 5.7407015562057495e-01</leafValues></_>
        <_>
          <internalNodes>
            0 -1 101 -1216094754 -586873528 1208104063 2138132784
            -1574796882 -2147430240 -1996302199 1245988619</internalNodes>
          <leafValues>
            -6.6567069292068481e-01 6.3775509595870972e-01</leafValues></_>
        <_>
          <internalNodes>
            0 -1 149 -788270217 -792657443 -1073512037 1342806024
            23155504 559588384 -788325856 2055127593</internalNodes>
          <leafValues>
            -7.5272470712661743e-01 5.9494155645370483e-01</leafValues></_></weakClassifiers></_>
    <!-- stage 1 -->
    <_>
      <maxWeakCount>4</maxWeakCount>
      <stageThreshold>-1.4484301805496216e+00</stageThreshold>
      <weakClassifiers>
        <_>
          <internalNodes>
            0 -1 190 603881471 -1353744386 -470844510 582692783
            -1074839569 1307574255 -3927 -616857985</internalNodes>
          <leafValues>
            -6.6252219676971436e-01 7.4541950225830078e-01</leafValues></_>
        <_>
          <internalNodes>
            0 -1 72 -716972057 -720531389 -939032249 1427853383
            1073913975 455213662 -954621600 -751240752</internalNodes>
          <leafValues>
            -7.5807833671569824e-01 6.1298727989196777e-01</leafValues></_>
        <_>
          <internalNodes>
            0 -1 178 1074156884 -218103808 -1908080639 167794176
            -1308243797 -2012741490 -888436073 -606340885</internalNodes>
          <leafValues>
            -6.7645406723022461e-01 6.1190891265869141e-01</leafValues></_>
        <_>
          <internalNodes>
            0 -1 13 -216273152 855703557 269046848 294065282 -1878357846
            1613365507 -796827494 2030817775</internalNodes>
          <leafValues>
            -7.5931727886199951e-01 5.7281571626663208e-01</leafValues></_></weakClassifiers></_>
    <!-- stage 2 -->
    <_>
      <maxWeakCount>5</maxWeakCount>
      <stageThreshold>-1.1432943344116211e+00</stageThreshold>
      <weakClassifiers>
        <_>
          <internalNodes>
            0 -1 102 -742139917 -250539968 545263965 1596014733
            -2096968059 1191739472 319406515 387612880</internalNodes>
          <leafValues>
            -8.5714286565780640e-01 5.9247136116027832e-01</leafValues></_>
        <_>
          <internalNodes>
            0 -1 143 -1714390050 1136726148 1098907723 1346592923
            -2009027173 -1962350590 430090959 39797067</internalNodes>
          <leafValues>
            -8.3206254243850708e-01 4.3162301182746887e-01</leafValues></_>
        <_>
          <internalNodes>
            0 -1 212 -687604737 1493950617 2101553 1091945600 294654049
            -938868606 -2138979878 1224791180</internalNodes>
          <leafValues>
            -6.5038555860519409e-01 6.3089936971664429e-01</leafValues></_>
        <_>
          <internalNodes>
            0 -1 55 1914960863 -1031741182 4227225 -325527406 1074299371
            -1476292608 331973807 206881220</internalNodes>
          <leafValues>
            -7.7328598499298096e-01 4.9600961804389954e-01</leafValues></_>
        <_>
          <internalNodes>
            0 -1 95 1527372751 -141750119 302188635 -753708909 146981391
            -1895825280 269046277 220954777</internalNodes>
          <leafValues>
            -6.9669413566589355e-01 5.1996839046478271e-01</leafValues></_></weakClassifiers></_>
    <!-- stage 3 -->
    <_>
      <maxWeakCount>5</maxWeakCount>
      <stageThreshold>-1.1984314918518066e+00</stageThreshold>
      <weakClassifiers>
        <_>
          <internalNodes>
            0 -1 82 -305932305 -1538076153 -2146120841 570441759
            -1023161905 4325537 30031952 1085338299</internalNodes>
          <leafValues>
            -7.3303169012069702e-01 6.2521588802337646e-01</leafValues></_>
        <_>
          <internalNodes>
            0 -1 173 -230428013 -883453605 -1610461181 -397799277
            184732565 260735305 1082332323 1307112889</internalNodes>
          <leafValues>
            -7.9844874143600464e-01 4.8208418488502502e-01</leafValues></_>
        <_>
          <internalNodes>
            0 -1 216 2002517503 319857154 -2147348409 1126355408
            2131439690 -695532395 139023360 1482289744</internalNodes>
          <leafValues>
            -6.6355055570602417e-01 5.3124958276748657e-01</leafValues></_>
        <_>
          <internalNodes>
            0 -1 12 -718213048 -717008638 268509392 1397459027 185199240
            657417 -2137997156 837538479</internalNodes>
          <leafValues>
            -6.8897902965545654e-01 5.2398514747619629e-01</leafValues></_>
        <_>
          <internalNodes>
            0 -1 158 863924798 -1890163832 1342278805 -318676574
            -1811881861 136546816 -1680113265 370125467</internalNodes>
          <leafValues>
            -8.6390531063079834e-01 4.0504562854766846e-01</leafValues></_></weakClassifiers></_>
    <!-- stage 4 -->
    <_>
      <maxWeakCount>6</maxWeakCount>
      <stageThreshold>-1.6742367744445801e+00</stageThreshold>
      <weakClassifiers>
        <_>
          <internalNodes>
            0 -1 187 -1757054986 -2059317026 68276656 5444595 18883003
            38191243 587340169 456858107</internalNodes>
          <leafValues>
            -8.3379501104354858e-01 5.6577885150909424e-01</leafValues></_>
        <_>
          <internalNodes>
            0 -1 30 71347927 718309903 2049 17305863 1074447757
            134414464 -900079077 -269524753</internalNodes>
          <leafValues>
            -6.2152451276779175e-01 5.7252150774002075e-01</leafValues></_>
        <_>
          <internalNodes>
            0 -1 68 -6957569 -2044997614 -2130473741 606117914
            -804585245 -829816407 -796229565 91195480</internalNodes>
          <leafValues>
            -7.3585224151611328e-01 4.9099302291870117e-01</leafValues></_>
        <_>
          <internalNodes>
            0 -1 100 -2122349705 -799202741 -2143289125 1929635085
            -1069316516 2091059203 -867909603 -13567408</internalNodes>
          <leafValues>
            -6.1900454759597778e-01 5.4699677228927612e-01</leafValues></_>
        <_>
          <internalNodes>
            0 -1 110 -1789640532 -928579056 -2121268857 -70057471
            -1957065893 151853103 1356902075 1462491819</internalNodes>
          <leafValues>
            -8.3327364921569824e-01 4.1087597608566284e-01</leafValues></_>
        <_>
          <internalNodes>
            0 -1 37 1208024479 1409523714 -1005960885 -204766696
            605737611 -1038090239 295960844 1442242740</internalNodes>
          <leafValues>
            -6.7451035976409912e-01 5.0248903036117554e-01</leafValues></_></weakClassifiers></_>
    <!-- stage 5 -->
    <_>
      <maxWeakCount>5</maxWeakCount>
      <stageThreshold>-1.3455815315246582e+00</stageThreshold>
      <weakClassifiers>
        <_>
          <internalNodes>
            0 -1 32 1188547067 1077330070 679657567 539279448 30508471
            -1718705268 1921141215 1211392288</internalNodes>
          <leafValues>
            -7.2540044784545898e-01 6.1650902032852173e-01</leafValues></_>
        <_>
          <internalNodes>
            0 -1 164 -614860893 1170608647 1218515987 -487604531
            956412129 1229556865 1562461897 2107659709</internalNodes>
          <leafValues>
            -7.6285153627395630e-01 4.7198131680488586e-01</leafValues></_>
        <_>
          <internalNodes>
            0 -1 46 118346900 1426090251 291541114 1359160833
            -1522236603 -805175289 -1877769835 330297327</internalNodes>
          <leafValues>
            -7.3694843053817749e-01 4.5796397328376770e-01</leafValues></_>
        <_>
          <internalNodes>
            0 -1 62 584843231 1074561872 14783519 143148050 437644399
            -394198102 -1342082411 206947412</internalNodes>
          <leafValues>
            -8.0291485786437988e-01 4.3000167608261108e-01</leafValues></_>
        <_>
          <internalNodes>
            0 -1 162 -854339107 -1191104447 147473 -452629949
            -2130132777 -1735669243 559599 741541297</internalNodes>
          <leafValues>
            -7.4721145629882812e-01 4.3873602151870728e-01</leafValues></_></weakClassifiers></_>
    <!-- stage 6 -->
    <_>
      <maxWeakCount>7</maxWeakCount>
      <stageThreshold>-7.0585453510284424e-01</stageThreshold>
      <weakClassifiers>
        <_>
          <internalNodes>
            0 -1 192 1879048191 -352583682 -67110922 -1896112133
            -805306369 -1879311361 402384630 -841460368</internalNodes>
          <leafValues>
            -5.4189944267272949e-01 6.5004706382751465e-01</leafValues></_>
        <_>
          <internalNodes>
            0 -1 87 475460351 352354356 1078998807 -23521983 558543871
            -1684526838 331034929 -2046873208</internalNodes>
          <leafValues>
            -5.9436523914337158e-01 5.1716256141662598e-01</leafValues></_>
        <_>
          <internalNodes>
            0 -1 103 -184061707 -249347027 -2129546343 1036218515
            -1434066159 -519892949 283738558 -1753509989</internalNodes>
          <leafValues>
            -5.2858084440231323e-01 5.7819586992263794e-01</leafValues></_>
        <_>
          <internalNodes>
            0 -1 113 -546113833 2075852298 -538087648 1269070924
            250998476 -1739297008 2012741502 1073217406</internalNodes>
          <leafValues>
            -5.1440399885177612e-01 6.1843860149383545e-01</leafValues></_>
        <_>
          <internalNodes>
            0 -1 146 -2030934733 -8593545 -320864409 -268967937
            351565765 -17072270 1853193303 -278403517</internalNodes>
          <leafValues>
            -5.0151097774505615e-01 6.4665275812149048e-01</leafValues></_>
        <_>
          <internalNodes>
            0 -1 50 -791821363 -715316835 1392721939 1460748289
            -1987853620 88113169 1593886857 412156107</internalNodes>
          <leafValues>
            -7.1853727102279663e-01 4.6240550279617310e-01</leafValues></_>
        <_>
          <internalNodes>
            0 -1 197 -564215257 -204545690 428675223 1092632833
            1208947017 -1458961920 591963274 2132328856</internalNodes>
          <leafValues>
            -6.5770387649536133e-01 5.1035821437835693e-01</leafValues></_></weakClassifiers></_>
    <!-- stage 7 -->
    <_>
      <maxWeakCount>8</maxWeakCount>
      <stageThreshold>-4.3352186679840088e-01</stageThreshold>
      <weakClassifiers>
        <_>
          <internalNodes>
            0 -1 7 487059456 1460666190 346808338 2099248629 -44042498
            -746586593 -186650241 1466947055</internalNodes>
          <leafValues>
            -5.0884085893630981e-01 6.0403299331665039e-01</leafValues></_>
        <_>
          <internalNodes>
            0 -1 233 -237012746 1427312769 419430809 -665481189
            1074326448 -1325268976 -1023203283 1326170185</internalNodes>
          <leafValues>
            -5.5191272497177124e-01 5.2324181795120239e-01</leafValues></_>
        <_>
          <internalNodes>
            0 -1 51 -732933940 -245956352 -2146942973 -921845631
            -1051928693 -1996182960 1082443995 135637679</internalNodes>
          <leafValues>
            -6.4119488000869751e-01 4.4444650411605835e-01</leafValues></_>
        <_>
          <internalNodes>
            0 -1 186 2005192752 1900355616 -2146426112 2034320672
            1208320642 538968192 285348255 2136195858</internalNodes>
          <leafValues>
            -6.4966285228729248e-01 4.5420777797698975e-01</leafValues></_>
        <_>
          <internalNodes>
            0 -1 5 239452935 562073733 134252487 -2055143351 -2122192181
            -1199292215 -1735030259 -1290280183</internalNodes>
          <leafValues>
            -5.6537216901779175e-01 5.1743924617767334e-01</leafValues></_>
        <_>
          <internalNodes>
            0 -1 221 307721983 -716618797 74075 973176848 291807992
            -640647158 -1593669109 1325511464</internalNodes>
          <leafValues>
            -6.1825948953628540e-01 4.5175594091415405e-01</leafValues></_>
        <_>
          <internalNodes>
            0 -1 139 1124434818 -799702773 -2130690048 1359054151
            -2113895549 143557760 1695130023 -945134923</internalNodes>
          <leafValues>
            -6.6744369268417358e-01 4.9290984869003296e-01</leafValues></_>
        <_>
          <internalNodes>
            0 -1 127 -666377573 84623874 1073743124 419512324 -998202934
            134334545 1610851039 1301011051</internalNodes>
          <leafValues>
            -5.6767988204956055e-01 5.3835344314575195e-01</leafValues></_></weakClassifiers></_>
    <!-- stage 8 -->
    <_>
      <maxWeakCount>7</maxWeakCount>
      <stageThreshold>-1.1196892261505127e+00</stageThreshold>
      <weakClassifiers>
        <_>
          <internalNodes>
            0 -1 130 1951331123 -579468957 1048834 277268691 1208058823
            604012672 1659519201 1365938241</internalNodes>
          <leafValues>
            -7.1505373716354370e-01 5.4234528541564941e-01</leafValues></_>
        <_>
          <internalNodes>
            0 -1 73 -1367884340 1533734888 -1551958150 -1711804716
            -9913444 -1656717488 -1078132771 -545260068</internalNodes>
          <leafValues>
            -5.2629786729812622e-01 5.4891043901443481e-01</leafValues></_>
        <_>
          <internalNodes>
            0 -1 223 -245903521 -787015854 -1584053985 1514242070
            562596702 -1014480760 1384785357 1242886808</internalNodes>
          <leafValues>
            -6.2604510784149170e-01 4.6902799606323242e-01</leafValues></_>
        <_>
          <internalNodes>
            0 -1 213 -1857956353 16949568 -872361835 2056327173
            -1404993120 -394264548 -2113175415 34224203</internalNodes>
          <leafValues>
            -6.9040244817733765e-01 4.1064742207527161e-01</leafValues></_>
        <_>
          <internalNodes>
            0 -1 175 -502631821 -498532222 -1065299691 -721354103
            -1072496121 -1996226559 407048899 -1692691340</internalNodes>
          <leafValues>
            -6.2670463323593140e-01 4.5857948064804077e-01</leafValues></_>
        <_>
          <internalNodes>
            0 -1 167 1393456477 -1691090032 78184736 23140488
            -1602156150 -1953464317 -1877442165 -1148485493</internalNodes>
          <leafValues>
            -5.6215250492095947e-01 5.0314259529113770e-01</leafValues></_>
        <_>
          <internalNodes>
            0 -1 11 -661533356 -486192303 -2147361148 1133629446
            67125913 -535822280 -1693869912 701195035</internalNodes>
          <leafValues>
            -6.5516984462738037e-01 4.5668569207191467e-01</leafValues></_></weakClassifiers></_>
    <!-- stage 9 -->
    <_>
      <maxWeakCount>7</maxWeakCount>
      <stageThreshold>-1.1185426712036133e+00</stageThreshold>
      <weakClassifiers>
        <_>
          <internalNodes>
            0 -1 61 407615455 -536833967 -1329577555 -1003573226
            558355455 -1862743935 238288097 1279264068</internalNodes>
          <leafValues>
            -7.5287353992462158e-01 5.2875399589538574e-01</leafValues></_>
        <_>
          <internalNodes>
            0 -1 78 -502576089 -792887223 549995647 -243033831
            -268345185 -891256657 -2134646660 -1681500124</internalNodes>
          <leafValues>
            -5.5173051357269287e-01 5.2730029821395874e-01</leafValues></_>
        <_>
          <internalNodes>
            0 -1 9 -860432138 1340907242 -285409281 2091400952
            -1359011842 -268542017 -131205 -533</internalNodes>
          <leafValues>
            -4.8938074707984924e-01 5.8343493938446045e-01</leafValues></_>
        <_>
          <internalNodes>
            0 -1 125 671331273 705859356 -1005517181 14 25183921
            -2067166711 906195271 1204724779</internalNodes>
          <leafValues>
            -7.5841301679611206e-01 4.2494845390319824e-01</leafValues></_>
        <_>
          <internalNodes>
            0 -1 69 -515714534 -578337408 -1870589545 1364836428
            -1073106502 -503250935 -1300061553 2042307323</internalNodes>
          <leafValues>
            -5.4950141906738281e-01 5.4296207427978516e-01</leafValues></_>
        <_>
          <internalNodes>
            0 -1 132 -719593386 -208715500 604210345 356540708
            -2146728870 -1043693558 1485144239 1878488223</internalNodes>
          <leafValues>
            -6.0253894329071045e-01 5.2775901556015015e-01</leafValues></_>
        <_>
          <internalNodes>
            0 -1 163 1781646606 621529669 -1072365295 -1073482559
            67479061 -1962672124 1804143112 496631981</internalNodes>
          <leafValues>
            -8.0057960748672485e-01 4.0044385194778442e-01</leafValues></_></weakClassifiers></_>
    <!-- stage 10 -->
    <_>
      <maxWeakCount>6</maxWeakCount>
      <stageThreshold>-1.1721187829971313e+00</stageThreshold>
      <weakClassifiers>
        <_>
          <internalNodes>
            0 -1 66 9763835 5768343 -2146238121 1216876706 -1903636049
            -1735554301 453233571 205570389</internalNodes>
          <leafValues>
            -6.9359332323074341e-01 5.2296537160873413e-01</leafValues></_>
        <_>
          <internalNodes>
            0 -1 188 -1156317731 1133744576 -1526660322 1087476160
            -2103324343 -1996422736 -1458894678 -1215584896</internalNodes>
          <leafValues>
            -5.4180747270584106e-01 5.0488448143005371e-01</leafValues></_>
        <_>
          <internalNodes>
            0 -1 74 1137039315 -1155526504 491782988 1068811330
            -1450600056 -1929375616 -494368370 -874479540</internalNodes>
          <leafValues>
            -5.0681418180465698e-01 5.5719524621963501e-01</leafValues></_>
        <_>
          <internalNodes>
            0 -1 20 -797155345 -1998536966 1325375478 208449404
            1056866047 -554207745 536786943 -896575722</internalNodes>
          <leafValues>
            -5.0332808494567871e-01 5.5470299720764160e-01</leafValues></_>
        <_>
          <internalNodes>
            0 -1 232 -616575533 -2072581 -1171063064 1823467303
            -806027530 -9503406 -1639057430 2064621276</internalNodes>
          <leafValues>
            -5.0655812025070190e-01 5.8516800403594971e-01</leafValues></_>
        <_>
          <internalNodes>
            0 -1 140 -1848150816 691228900 -2139029245 458772608
            543082659 -1920303095 1384373867 730755663</internalNodes>
          <leafValues>
            -7.2830235958099365e-01 4.2137280106544495e-01</leafValues></_></weakClassifiers></_>
    <!-- stage 11 -->
    <_>
      <maxWeakCount>7</maxWeakCount>
      <stageThreshold>-9.9397784471511841e-01</stageThreshold>
      <weakClassifiers>
        <_>
          <internalNodes>
            0 -1 109 1637320503 -784158310 -268330862 1918275787
            537305156 286265347 694845777 1349184089</internalNodes>
          <leafValues>
            -7.0087975263595581e-01 5.0754565000534058e-01</leafValues></_>
        <_>
          <internalNodes>
            0 -1 154 -165979025 -1073151998 344033299 291836033
            -1073297115 -1408694272 545460259 -1880160971</internalNodes>
          <leafValues>
            -6.6819316148757935e-01 3.9276814460754395e-01</leafValues></_>
        <_>
          <internalNodes>
            0 -1 220 422801911 -63963001 -1845161955 -224210548
            634044571 -1197473790 -2013230976 1258512805</internalNodes>
          <leafValues>
            -5.9350967407226562e-01 5.1772302389144897e-01</leafValues></_>
        <_>
          <internalNodes>
            0 -1 205 -19418378 -111869927 -1878948845 -520077246
            846291081 1219793024 -804199575 -374308084</internalNodes>
          <leafValues>
            -5.4298323392868042e-01 5.1712083816528320e-01</leafValues></_>
        <_>
          <internalNodes>
            0 -1 160 1623523287 60867474 541197331 151060740 7258496
            207258624 -242581297 -541613557</internalNodes>
          <leafValues>
            -5.3542286157608032e-01 4.9935948848724365e-01</leafValues></_>
        <_>
          <internalNodes>
            0 -1 93 -888826441 -751239087 268718082 352395271 -888213429
            -1184792253 679714825 187935377</internalNodes>
          <leafValues>
            -5.9830707311630249e-01 4.7896811366081238e-01</leafValues></_>
        <_>
          <internalNodes>
            0 -1 6 151251722 -446955243 -1610600373 -922025975 269058735
            1375895565 -393412533 -9313981</internalNodes>
          <leafValues>
            -5.7797235250473022e-01 4.9025258421897888e-01</leafValues></_></weakClassifiers></_>
    <!-- stage 12 -->
    <_>
      <maxWeakCount>8</maxWeakCount>
      <stageThreshold>-6.0498231649398804e-01</stageThreshold>
      <weakClassifiers>
        <_>
          <internalNodes>
            0 -1 79 1246438171 38289891 539073821 -2113916897 1355352572
            -1561853902 181975284 692324352</internalNodes>
          <leafValues>
            -6.5425533056259155e-01 5.2777779102325439e-01</leafValues></_>
        <_>
          <internalNodes>
            0 -1 151 -783922713 -214449913 54722758 -2137079714
            -1306916617 1896431616 574693447 1397678983</internalNodes>
          <leafValues>
            -6.7997676134109497e-01 3.8036498427391052e-01</leafValues></_>
        <_>
          <internalNodes>
            0 -1 141 -245812002 -2129588155 134284549 -394952446
            -107966231 -2103393901 713067144 -1651953089</internalNodes>
          <leafValues>
            -5.2580285072326660e-01 4.8702052235603333e-01</leafValues></_>
        <_>
          <internalNodes>
            0 -1 123 1350892799 21233692 -2142752622 1695604801
            583924009 203702306 17437139 -875895669</internalNodes>
          <leafValues>
            -5.6813305616378784e-01 4.5742133259773254e-01</leafValues></_>
        <_>
          <internalNodes>
            0 -1 8 -1055594788 -753860601 1149240388 -913604092
            -402550343 -791960925 679527336 759161259</internalNodes>
          <leafValues>
            -6.1325246095657349e-01 4.2315357923507690e-01</leafValues></_>
        <_>
          <internalNodes>
            0 -1 224 -781596936 1415794693 441533017 -498908988
            -234872822 -770867133 672149612 50578127</internalNodes>
          <leafValues>
            -7.0402169227600098e-01 3.6442971229553223e-01</leafValues></_>
        <_>
          <internalNodes>
            0 -1 166 -502804137 -1052178938 303054915 1900789891
            -905779369 1375786127 -2112183157 -1278072699</internalNodes>
          <leafValues>
            -5.9990334510803223e-01 4.5305505394935608e-01</leafValues></_>
        <_>
          <internalNodes>
            0 -1 184 -340000838 -5247057 -286331981 -353697813
            -826613842 -1907429379 252395505 -586211397</internalNodes>
          <leafValues>
            -4.5684742927551270e-01 5.9065699577331543e-01</leafValues></_></weakClassifiers></_>
    <!-- stage 13 -->
    <_>
      <maxWeakCount>9</maxWeakCount>
      <stageThreshold>-7.8645867109298706e-01</stageThreshold>
      <weakClassifiers>
        <_>
          <internalNodes>
            0 -1 218 -2013266433 150994933 -335544323 383778773
            -1342177547 -1073746177 536177073 232525151</internalNodes>
          <leafValues>
            -5.2967035770416260e-01 5.5982530117034912e-01</leafValues></_>
        <_>
          <internalNodes>
            0 -1 24 1091163023 538747714 -2147467263 104071652 21282995
            -1325170221 -2143288565 -1002413530</internalNodes>
          <leafValues>
            -5.3919523954391479e-01 4.4553878903388977e-01</leafValues></_>
        <_>
          <internalNodes>
            0 -1 171 349500215 621810436 1210155153 537199233
            -1289689845 -653193983 151406603 -3439997</internalNodes>
          <leafValues>
            -5.1133078336715698e-01 4.9412405490875244e-01</leafValues></_>
        <_>
          <internalNodes>
            0 -1 116 -748383416 -1860894697 -1069411840 -1459388399
            -482292093 -798261115 1074008615 -1693515255</internalNodes>
          <leafValues>
            -5.7452106475830078e-01 4.7429037094116211e-01</leafValues></_>
        <_>
          <internalNodes>
            0 -1 58 1392628383 -1827579851 1276221709 1694566435
            -1280780134 -2093774336 50872193 -1747207488</internalNodes>
          <leafValues>
            -5.7799994945526123e-01 4.7340440750122070e-01</leafValues></_>
        <_>
          <internalNodes>
            0 -1 29 -879656585 1901089112 -400260860 472154660
            -805281626 981565760 25226125 -399838328</internalNodes>
          <leafValues>
            -5.6135278940200806e-01 4.8915982246398926e-01</leafValues></_>
        <_>
          <internalNodes>
            0 -1 86 -2125216457 -2125725673 -2147155937 1540686083
            -2142035695 1476919304 1252215976 691332620</internalNodes>
          <leafValues>
            -6.3736051321029663e-01 4.3269050121307373e-01</leafValues></_>
        <_>
          <internalNodes>
            0 -1 193 -787320365 -1795059404 286359827 13980033
            -2147171431 135297 -1392255761 -366108541</internalNodes>
          <leafValues>
            -4.8702716827392578e-01 5.6257915496826172e-01</leafValues></_>
        <_>
          <internalNodes>
            0 -1 133 795794893 -1213211523 2077751018 443637620
            -1431389192 -855851014 1862270975 -1119879273</internalNodes>
          <leafValues>
            -4.4969198107719421e-01 5.9299886226654053e-01</leafValues></_></weakClassifiers></_>
    <!-- stage 14 -->
    <_>
      <maxWeakCount>6</maxWeakCount>
      <stageThreshold>-8.1155318021774292e-01</stageThreshold>
      <weakClassifiers>
        <_>
          <internalNodes>
            0 -1 65 -285267265 -822087937 -16875777 -285311234 -8508451
            -1212417 1862205428 1852096508</internalNodes>
          <leafValues>
            -5.0951373577117920e-01 5.6876665353775024e-01</leafValues></_>
        <_>
          <internalNodes>
            0 -1 75 328339873 -217874167 304154033 1395725570 271190177
            -1834450865 277905541 330150183</internalNodes>
          <leafValues>
            -7.2774153947830200e-01 3.8189452886581421e-01</leafValues></_>
        <_>
          <internalNodes>
            0 -1 19 76394455 243409948 268438036 45361 -1040186998
            -921173972 -394035065 1125412043</internalNodes>
          <leafValues>
            -6.7819470167160034e-01 3.5576432943344116e-01</leafValues></_>
        <_>
          <internalNodes>
            0 -1 155 1381654222 -502585344 -805304287 -805306087
            -1559713269 17335822 -670915901 -1722154823</internalNodes>
          <leafValues>
            -6.5163367986679077e-01 3.6067810654640198e-01</leafValues></_>
        <_>
          <internalNodes>
            0 -1 215 -1311160611 616760340 1896153175 1551479171
            -1575906825 -436207340 -763258287 173146267</internalNodes>
          <leafValues>
            -7.1405357122421265e-01 3.2771283388137817e-01</leafValues></_>
        <_>
          <internalNodes>
            0 -1 49 -603885363 -207518911 -2147414015 -254729376
            -2125974642 620757121 1212194890 152076690</internalNodes>
          <leafValues>
            -6.7318493127822876e-01 3.4763619303703308e-01</leafValues></_></weakClassifiers></_>
    <!-- stage 15 -->
    <_>
      <maxWeakCount>8</maxWeakCount>
      <stageThreshold>-1.0557245016098022e+00</stageThreshold>
      <weakClassifiers>
        <_>
          <internalNodes>
            0 -1 134 310136870 -1056669674 268500992 -2130640895
            177926523 205783109 -1828675453 1198203515</internalNodes>
          <leafValues>
            -8.0291968584060669e-01 4.6757164597511292e-01</leafValues></_>
        <_>
          <internalNodes>
            0 -1 70 -20981093 -765461669 1320235645 389807989 -536920402
            -27263153 593424283 426655726</internalNodes>
          <leafValues>
            -4.4349116086959839e-01 5.6714779138565063e-01</leafValues></_>
        <_>
          <internalNodes>
            0 -1 18 -1003556353 -1985429522 754941942 82325428
            -1963034635 251559935 1876897788 -824490062</internalNodes>
          <leafValues>
            -4.5303970575332642e-01 5.8418875932693481e-01</leafValues></_>
        <_>
          <internalNodes>
            0 -1 88 -1714723373 1476431958 -2013245172 559841472
            806474112 1258292237 -1869887249 -575493719</internalNodes>
          <leafValues>
            -4.9313926696777344e-01 5.0146222114562988e-01</leafValues></_>
        <_>
          <internalNodes>
            0 -1 42 -1857968372 1887453206 17858581 318832640
            -1601714275 -1341095615 858837916 123582248</internalNodes>
          <leafValues>
            -6.6992175579071045e-01 3.6412173509597778e-01</leafValues></_>
        <_>
          <internalNodes>
            0 -1 112 -787114113 -1717567404 20994318 -1592196334
            -1877769952 143663496 537460879 -353541712</internalNodes>
          <leafValues>
            -4.9043515324592590e-01 5.2816897630691528e-01</leafValues></_>
        <_>
          <internalNodes>
            0 -1 236 -234818838 -757317563 -2063023975 1527185415
            268533913 538968256 571805886 1493694634</internalNodes>
          <leafValues>
            -5.4079729318618774e-01 5.1135861873626709e-01</leafValues></_>
        <_>
          <internalNodes>
            0 -1 107 -82597189 -67375105 -223282526 -604897345
            -813588721 -1890123779 1562490331 -1177607155</internalNodes>
          <leafValues>
            -4.4567739963531494e-01 5.9335488080978394e-01</leafValues></_></weakClassifiers></_>
    <!-- stage 16 -->
    <_>
      <maxWeakCount>7</maxWeakCount>
      <stageThreshold>-5.5868560075759888e-01</stageThreshold>
      <weakClassifiers>
        <_>
          <internalNodes>
            0 -1 229 -5379 1432304507 599687071 2095315423 2120678528
            -28508167 1975351055 2071521584</internalNodes>
          <leafValues>
            -3.2810047268867493e-01 6.3239872455596924e-01</leafValues></_>
        <_>
          <internalNodes>
            0 -1 239 -950537403 -2114486279 -1342898625 2008366965
            -143786948 2080276479 -1401133248 -480934336</internalNodes>
          <leafValues>
            -4.4338577985763550e-01 5.3316730260848999e-01</leafValues></_>
        <_>
          <internalNodes>
            0 -1 211 1906578269 299684164 285278213 1364787828
            -2138275319 -1451098102 -1949458273 142942991</internalNodes>
          <leafValues>
            -5.4119402170181274e-01 4.3655413389205933e-01</leafValues></_>
        <_>
          <internalNodes>
            0 -1 80 -286261513 -65545 -285217601 2147483630 -41307
            -32769 -545295332 -827265420</internalNodes>
          <leafValues>
            -3.9832812547683716e-01 5.6740188598632812e-01</leafValues></_>
        <_>
          <internalNodes>
            0 -1 170 1822434022 -938983167 1619005937 -654061559
            402997603 1359151107 1377878239 -1131763699</internalNodes>
          <leafValues>
            -6.5784299373626709e-01 4.0075781941413879e-01</leafValues></_>
        <_>
          <internalNodes>
            0 -1 39 271566625 -1218445441 -1263601881 -182976897
            -61407747 -4784131 -142706694 -603979791</internalNodes>
          <leafValues>
            -4.0792691707611084e-01 6.6488605737686157e-01</leafValues></_>
        <_>
          <internalNodes>
            0 -1 14 1896589730 1938882873 -2130369504 -214236594
            -1061470815 2105888 1345724964 1596439904</internalNodes>
          <leafValues>
            -6.9670784473419189e-01 3.9629817008972168e-01</leafValues></_></weakClassifiers></_>
    <!-- stage 17 -->
    <_>
      <maxWeakCount>8</maxWeakCount>
      <stageThreshold>-1.3678562641143799e+00</stageThreshold>
      <weakClassifiers>
        <_>
          <internalNodes>
            0 -1 147 1444090403 135442583 33767506 -532543469 1887801127
            268435589 838934915 1191420837</internalNodes>
          <leafValues>
            -6.6765576601028442e-01 4.9485352635383606e-01</leafValues></_>
        <_>
          <internalNodes>
            0 -1 181 1157091607 -1618570088 -2120081403 135300304
            1098952888 16885769 180363 2064285850</internalNodes>
          <leafValues>
            -5.2934956550598145e-01 4.2881187796592712e-01</leafValues></_>
        <_>
          <internalNodes>
            0 -1 97 -783189038 -1732837264 3 862265351 -2136997492
            151068747 33751434 51324939</internalNodes>
          <leafValues>
            -7.1687459945678711e-01 3.6641362309455872e-01</leafValues></_>
        <_>
          <internalNodes>
            0 -1 4 75137935 -1056645887 537018373 -1055557504
            -1182731973 -1711267839 -531405661 -177745717</internalNodes>
          <leafValues>
            -5.5095773935317993e-01 4.1159710288047791e-01</leafValues></_>
        <_>
          <internalNodes>
            0 -1 144 -1831148609 1651156102 133771 402956288 -2143174450
            1078169605 34097179 -739448670</internalNodes>
          <leafValues>
            -4.9688833951950073e-01 5.0297158956527710e-01</leafValues></_>
        <_>
          <internalNodes>
            0 -1 219 1879964767 1561001984 -1073704867 1997398260
            2081155 -1048013816 135497772 452990231</internalNodes>
          <leafValues>
            -6.1878997087478638e-01 4.0319675207138062e-01</leafValues></_>
        <_>
          <internalNodes>
            0 -1 179 -1346386449 -1627636102 -8390788 -419463179
            -11308224 -1904250535 -1116343301 -41857</internalNodes>
          <leafValues>
            -3.9679878950119019e-01 6.3076943159103394e-01</leafValues></_>
        <_>
          <internalNodes>
            0 -1 183 -831389274 -787476224 -2130435881 -2121723887
            1761714432 725263362 1242270489 1094824211</internalNodes>
          <leafValues>
            -5.9450042247772217e-01 4.2376869916915894e-01</leafValues></_></weakClassifiers></_>
    <!-- stage 18 -->
    <_>
      <maxWeakCount>8</maxWeakCount>
      <stageThreshold>-1.3756513595581055e+00</stageThreshold>
      <weakClassifiers>
        <_>
          <internalNodes>
            0 -1 60 538441631 1610876241 332157 1207959940 437360891
            1350598792 197239280 225230928</internalNodes>
          <leafValues>
            -6.5137612819671631e-01 4.8153966665267944e-01</leafValues></_>
        <_>
          <internalNodes>
            0 -1 0 -825824033 -67457090 -268632066 -2067869716
            -406978570 1996423167 1609383290 -545788037</internalNodes>
          <leafValues>
            -3.7704581022262573e-01 6.0658985376358032e-01</leafValues></_>
        <_>
          <internalNodes>
            0 -1 41 -512267609 -1046728459 1769534 -654176227
            -1828699714 -1862205429 42090698 187710985</internalNodes>
          <leafValues>
            -5.4530590772628784e-01 4.7521030902862549e-01</leafValues></_>
        <_>
          <internalNodes>
            0 -1 195 308640246 894615556 -1794829936 211618184
            -2147434354 -2080275455 -1474260981 -1928756853</internalNodes>
          <leafValues>
            -5.3138679265975952e-01 4.5099902153015137e-01</leafValues></_>
        <_>
          <internalNodes>
            0 -1 150 -787512481 -1038449023 -2147409909 1384416098
            1118503041 1208059013 19071397 -1113585529</internalNodes>
          <leafValues>
            -5.6460499763488770e-01 4.1607686877250671e-01</leafValues></_>
        <_>
          <internalNodes>
            0 -1 137 -249719597 -855431923 100665472 -536800509
            939633024 230175618 86745257 -603381355</internalNodes>
          <leafValues>
            -6.1698782444000244e-01 3.9586022496223450e-01</leafValues></_>
        <_>
          <internalNodes>
            0 -1 22 285274280 -769638395 136844699 -939454399 -649797201
            -1307555837 -123940099 1107083400</internalNodes>
          <leafValues>
            -6.2232249975204468e-01 4.1538280248641968e-01</leafValues></_>
        <_>
          <internalNodes>
            0 -1 148 -871914740 -1336737150 -2063046254 -540964816
            -790466304 213942592 145162962 126477990</internalNodes>
          <leafValues>
            -6.0243928432464600e-01 3.9147517085075378e-01</leafValues></_></weakClassifiers></_>
    <!-- stage 19 -->
    <_>
      <maxWeakCount>7</maxWeakCount>
      <stageThreshold>-4.4295826554298401e-01</stageThreshold>
      <weakClassifiers>
        <_>
          <internalNodes>
            0 -1 118 542785331 1368623343 16916829 1894252823 2177537
            1619067171 608965492 1617846361</internalNodes>
          <leafValues>
            -7.4482756853103638e-01 4.7022899985313416e-01</leafValues></_>
        <_>
          <internalNodes>
            0 -1 217 -250545006 -1756282240 26282634 2020004038
            -218069748 -524254208 -171933045 1224941978</internalNodes>
          <leafValues>
            -5.7650774717330933e-01 3.8622337579727173e-01</leafValues></_>
        <_>
          <internalNodes>
            0 -1 157 -804735192 218644482 1073741824 1388544009
            -1879047800 134742016 16965635 -668209080</internalNodes>
          <leafValues>
            -6.0159707069396973e-01 3.8690009713172913e-01</leafValues></_>
        <_>
          <internalNodes>
            0 -1 114 -565788465 1446086174 -1073740963 1369653256
            -2138906482 -1875337184 -1706516331 1460617651</internalNodes>
          <leafValues>
            -6.0497248172760010e-01 4.0027433633804321e-01</leafValues></_>
        <_>
          <internalNodes>
            0 -1 105 -2112540635 1624588423 77640135 1007669506
            805488705 -1198710655 1220375 -230241599</internalNodes>
          <leafValues>
            -6.0884225368499756e-01 3.9403775334358215e-01</leafValues></_>
        <_>
          <internalNodes>
            0 -1 222 1899303506 -1067991039 -2122317432 -1116104175
            -1056325580 -2004762463 312492546 1381720717</internalNodes>
          <leafValues>
            -5.4629307985305786e-01 4.0707042813301086e-01</leafValues></_>
        <_>
          <internalNodes>
            0 -1 185 -1852632933 537641603 1048595 268714185 1351319552
            -536819712 -1434439542 -1092052819</internalNodes>
          <leafValues>
            -6.6738981008529663e-01 3.5107439756393433e-01</leafValues></_></weakClassifiers></_>
    <!-- stage 20 -->
    <_>
      <maxWeakCount>8</maxWeakCount>
      <stageThreshold>-1.2088941335678101e+00</stageThreshold>
      <weakClassifiers>
        <_>
          <internalNodes>
            0 -1 33 1116951037 1078510036 822116793 772558902 50567839
            -2146205677 1090634480 152322400</internalNodes>
          <leafValues>
            -6.9536423683166504e-01 4.6995377540588379e-01</leafValues></_>
        <_>
          <internalNodes>
            0 -1 196 274160471 356839813 -1793519531 580371225
            -2130657149 -1988100024 1342284946 -485545974</internalNodes>
          <leafValues>
            -5.1711136102676392e-01 4.1858184337615967e-01</leafValues></_>
        <_>
          <internalNodes>
            0 -1 172 2004444950 1542455742 54541376 721500160 537690804
            1755316236 142704777 -515399512</internalNodes>
          <leafValues>
            -5.1012581586837769e-01 4.6932160854339600e-01</leafValues></_>
        <_>
          <internalNodes>
            0 -1 2 -1060716497 -2119909376 2 305114246 1363288324
            541065218 -2113900408 -951891709</internalNodes>
          <leafValues>
            -4.9927657842636108e-01 4.7104007005691528e-01</leafValues></_>
        <_>
          <internalNodes>
            0 -1 152 -532642477 -805223907 -2147483171 -803207162
            -369000409 -1979482109 -33242441 -1976847819</internalNodes>
          <leafValues>
            -5.5631220340728760e-01 4.0265798568725586e-01</leafValues></_>
        <_>
          <internalNodes>
            0 -1 89 -251620477 -203227153 -1154221389 -231620866
            -38949105 -3145763 -14732005 -1482703409</internalNodes>
          <leafValues>
            -4.0582543611526489e-01 6.2646555900573730e-01</leafValues></_>
        <_>
          <internalNodes>
            0 -1 10 583570308 -1839660752 486574218 117737480
            -2012236400 -2011168640 8425481 1921220611</internalNodes>
          <leafValues>
            -6.8811601400375366e-01 3.8856077194213867e-01</leafValues></_>
        <_>
          <internalNodes>
            0 -1 206 286306645 288555137 687947863 -573972129 -754847327
            1786874510 -1772844968 -1701829028</internalNodes>
          <leafValues>
            -5.1445049047470093e-01 4.4124147295951843e-01</leafValues></_></weakClassifiers></_>
    <!-- stage 21 -->
    <_>
      <maxWeakCount>9</maxWeakCount>
      <stageThreshold>-1.0485826730728149e+00</stageThreshold>
      <weakClassifiers>
        <_>
          <internalNodes>
            0 -1 201 -1343357059 -1413758691 -73662477 687800317
            -1342177539 -2147024639 469324569 1300776695</internalNodes>
          <leafValues>
            -4.9545454978942871e-01 5.3275859355926514e-01</leafValues></_>
        <_>
          <internalNodes>
            0 -1 189 528276959 966349213 -872341332 8521917 -2088726264
            109281280 -1870561077 -1421770742</internalNodes>
          <leafValues>
            -4.9510687589645386e-01 4.4266852736473083e-01</leafValues></_>
        <_>
          <internalNodes>
            0 -1 177 -1336771405 -1996413951 21073813 503398543
            403275792 536875008 -1329254317 -1627290811</internalNodes>
          <leafValues>
            -5.9216403961181641e-01 3.6020028591156006e-01</leafValues></_>
        <_>
          <internalNodes>
            0 -1 56 17794309 290558025 8193 -1795129318 -1069346593
            -528416640 -1476179602 -517046198</internalNodes>
          <leafValues>
            -5.0970607995986938e-01 4.6182399988174438e-01</leafValues></_>
        <_>
          <internalNodes>
            0 -1 129 -750679907 2085715647 -67895302 -130367490
            219501983 -2018508803 -977332257 -1692684803</internalNodes>
          <leafValues>
            -4.5656228065490723e-01 4.8272007703781128e-01</leafValues></_>
        <_>
          <internalNodes>
            0 -1 35 1616406943 894439559 -1342176246 -1568653294
            1414453450 -790656894 1141414666 -1278940642</internalNodes>
          <leafValues>
            -4.9594348669052124e-01 4.7922584414482117e-01</leafValues></_>
        <_>
          <internalNodes>
            0 -1 85 1880296215 -1710157687 1073807657 1342325123
            34079105 -1985970166 117541121 1092191489</internalNodes>
          <leafValues>
            -6.7113101482391357e-01 3.6669695377349854e-01</leafValues></_>
        <_>
          <internalNodes>
            0 -1 67 1910958983 -1878916410 20990224 1090621506 58917007
            2562 -1322968181 1301260936</internalNodes>
          <leafValues>
            -5.8699238300323486e-01 4.1691541671752930e-01</leafValues></_>
        <_>
          <internalNodes>
            0 -1 45 2001166386 -905701353 1142427782 84281346 -526876246
            5505280 -1744665974 1161990656</internalNodes>
          <leafValues>
            -7.3477435111999512e-01 3.2651033997535706e-01</leafValues></_></weakClassifiers></_>
    <!-- stage 22 -->
    <_>
      <maxWeakCount>8</maxWeakCount>
      <stageThreshold>-6.4325577020645142e-01</stageThreshold>
      <weakClassifiers>
        <_>
          <internalNodes>
            0 -1 208 1868900105 484716447 804192039 896520031
            -1417352895 -34115599 527932739 -402862777</internalNodes>
          <leafValues>
            -2.5738397240638733e-01 6.5579301118850708e-01</leafValues></_>
        <_>
          <internalNodes>
            0 -1 76 -217912631 1342244954 323223834 1970176008
            -603742206 536871936 146884746 17441759</internalNodes>
          <leafValues>
            -5.1818352937698364e-01 4.2938309907913208e-01</leafValues></_>
        <_>
          <internalNodes>
            0 -1 142 4823829 815857951 327824 822124678 -2129927661
            1350566283 25829508 -40490617</internalNodes>
          <leafValues>
            -5.1119536161422729e-01 4.2568224668502808e-01</leafValues></_>
        <_>
          <internalNodes>
            0 -1 26 1795039487 -1114114 -285272285 -1051410 536827887 -1
            268422925 -303282993</internalNodes>
          <leafValues>
            -4.1881784796714783e-01 5.6162309646606445e-01</leafValues></_>
        <_>
          <internalNodes>
            0 -1 28 -1644462597 1970110148 -1342242961 648838348
            2113907633 -939659393 -268566594 -1426870302</internalNodes>
          <leafValues>
            -3.9176797866821289e-01 6.0726124048233032e-01</leafValues></_>
        <_>
          <internalNodes>
            0 -1 161 1635805135 -800784301 -1543503552 1296146697
            -530118906 -1312018416 -1608178581 235601923</internalNodes>
          <leafValues>
            -5.1023501157760620e-01 4.7548612952232361e-01</leafValues></_>
        <_>
          <internalNodes>
            0 -1 203 1059846071 -1146355714 -1367353039 1061093167
            -1346371837 2129395694 784052211 -926867459</internalNodes>
          <leafValues>
            -4.0800657868385315e-01 5.9740090370178223e-01</leafValues></_>
        <_>
          <internalNodes>
            0 -1 38 2061944414 494809083 1610542974 -1196640538
            2128899942 402407350 1976924798 -452651086</internalNodes>
          <leafValues>
            -4.5816102623939514e-01 5.4678821563720703e-01</leafValues></_></weakClassifiers></_>
    <!-- stage 23 -->
    <_>
      <maxWeakCount>9</maxWeakCount>
      <stageThreshold>-1.0442677736282349e+00</stageThreshold>
      <weakClassifiers>
        <_>
          <internalNodes>
            0 -1 169 -1793851179 701845700 300160 1082986517 -1450570966
            -360179704 -2147308883 1935016330</internalNodes>
          <leafValues>
            -6.0335195064544678e-01 4.9597424268722534e-01</leafValues></_>
        <_>
          <internalNodes>
            0 -1 53 1413605535 -2075066301 131284 1133543691 -377355641
            -259980267 1235958456 2045956857</internalNodes>
          <leafValues>
            -4.8563128709793091e-01 4.4870325922966003e-01</leafValues></_>
        <_>
          <internalNodes>
            0 -1 99 545478437 -1119550269 -2146958460 857145344
            1611137676 -1693900616 -2147384932 -343914184</internalNodes>
          <leafValues>
            -4.7175279259681702e-01 4.6931353211402893e-01</leafValues></_>
        <_>
          <internalNodes>
            0 -1 210 -259542119 -2079510462 134224177 237259546
            -1065177084 -1996390143 197902392 1364332680</internalNodes>
          <leafValues>
            -7.1520864963531494e-01 3.2606241106987000e-01</leafValues></_>
        <_>
          <internalNodes>
            0 -1 108 -746536494 -243143998 163972 2074167297 -1576865245
            1776320596 -1844921529 189258312</internalNodes>
          <leafValues>
            -6.2059050798416138e-01 3.3370268344879150e-01</leafValues></_>
        <_>
          <internalNodes>
            0 -1 235 -63605903 -1104888011 -4325507 -1363969038
            -1368195688 -562184266 -1153811006 -1993353797</internalNodes>
          <leafValues>
            -4.3671754002571106e-01 5.4732316732406616e-01</leafValues></_>
        <_>
          <internalNodes>
            0 -1 91 1527333076 -1710225405 729843337 -1404383230
            -1937715703 -1451195384 689111169 -1834557246</internalNodes>
          <leafValues>
            -5.2173495292663574e-01 4.3528497219085693e-01</leafValues></_>
        <_>
          <internalNodes>
            0 -1 226 -1807285808 289998528 -461302435 -199425716
            -1073643359 -360710143 -2129950360 1881249977</internalNodes>
          <leafValues>
            -6.0709017515182495e-01 3.9770337939262390e-01</leafValues></_>
        <_>
          <internalNodes>
            0 -1 135 -132941874 172069252 555778658 84238872 -251590270
            -1842835288 -2011657557 496157378</internalNodes>
          <leafValues>
            -5.3389549255371094e-01 4.5750707387924194e-01</leafValues></_></weakClassifiers></_>
    <!-- stage 24 -->
    <_>
      <maxWeakCount>10</maxWeakCount>
      <stageThreshold>-1.1776280403137207e+00</stageThreshold>
      <weakClassifiers>
        <_>
          <internalNodes>
            0 -1 204 -1075101745 -538120221 -85001499 589361084
            1608284016 2138505198 1609465716 1548802892</internalNodes>
          <leafValues>
            -4.8063781857490540e-01 5.2627044916152954e-01</leafValues></_>
        <_>
          <internalNodes>
            0 -1 1 243117559 246054782 1593748926 2147483583 -809551884
            1030807543 -1913151492 -412139662</internalNodes>
          <leafValues>
            -4.1609358787536621e-01 4.8617911338806152e-01</leafValues></_>
        <_>
          <internalNodes>
            0 -1 131 -1023295335 -774118829 100797405 1477541903
            -1063667680 -1330509820 -2139086134 2014218339</internalNodes>
          <leafValues>
            -4.9628603458404541e-01 4.2451593279838562e-01</leafValues></_>
        <_>
          <internalNodes>
            0 -1 122 -2142490238 1074298886 285278208 -1022914559
            -968442999 -1572859896 168868019 -345791998</internalNodes>
          <leafValues>
            -5.2346950769424438e-01 4.3862488865852356e-01</leafValues></_>
        <_>
          <internalNodes>
            0 -1 63 281195301 1351639305 1073875075 -805109711 8401161
            168822912 -1333755900 -1919242110</internalNodes>
          <leafValues>
            -5.0105702877044678e-01 4.4559818506240845e-01</leafValues></_>
        <_>
          <internalNodes>
            0 -1 177 -1857523597 1371652524 -1841200111 1640173698
            -1471823850 -1943500797 -134100840 -1694301691</internalNodes>
          <leafValues>
            -5.3936958312988281e-01 4.8195165395736694e-01</leafValues></_>
        <_>
          <internalNodes>
            0 -1 23 436359895 1879638528 -1072484335 52840468 578879626
            167772176 -955604382 525173731</internalNodes>
          <leafValues>
            -4.7681143879890442e-01 5.3638654947280884e-01</leafValues></_>
        <_>
          <internalNodes>
            0 -1 111 -1733169457 -155129920 -1342181394 -1280512018
            -1078216736 -1982317392 -524425 -830537737</internalNodes>
          <leafValues>
            -4.6685510873794556e-01 5.3794384002685547e-01</leafValues></_>
        <_>
          <internalNodes>
            0 -1 54 1075014397 -1069514345 37761301 -1609478138
            -2138955639 -1677721597 746951313 674292138</internalNodes>
          <leafValues>
            -6.3261920213699341e-01 4.4608324766159058e-01</leafValues></_>
        <_>
          <internalNodes>
            0 -1 200 -1839472301 -498986989 1073741841 -66436863
            -1559517173 -2013134848 270895120 1400233985</internalNodes>
          <leafValues>
            -6.2960761785507202e-01 3.9720878005027771e-01</leafValues></_></weakClassifiers></_>
    <!-- stage 25 -->
    <_>
      <maxWeakCount>9</maxWeakCount>
      <stageThreshold>-5.1351815462112427e-01</stageThreshold>
      <weakClassifiers>
        <_>
          <internalNodes>
            0 -1 238 -1268912219 24452968 -671285643 234717051
            1069135809 -1073741842 795987508 -1492656272</internalNodes>
          <leafValues>
            -3.0434781312942505e-01 6.2343096733093262e-01</leafValues></_>
        <_>
          <internalNodes>
            0 -1 227 -360028011 419594389 17047831 -632422207 41410
            -1669136224 -1063155072 1912865923</internalNodes>
          <leafValues>
            -5.3114861249923706e-01 4.3731898069381714e-01</leafValues></_>
        <_>
          <internalNodes>
            0 -1 48 -226118308 1393659904 -2013134587 1440744192
            -1073609999 -536865903 -1996183040 26073810</internalNodes>
          <leafValues>
            -5.9797400236129761e-01 3.8324311375617981e-01</leafValues></_>
        <_>
          <internalNodes>
            0 -1 96 1073930471 1370719234 1118289 1317347329 1093034371
            -740093819 -1836541430 142307331</internalNodes>
          <leafValues>
            -5.1077127456665039e-01 4.5079353451728821e-01</leafValues></_>
        <_>
          <internalNodes>
            0 -1 16 1679409327 1610781952 -2147401200 83886098
            -2139045715 311296001 -2126444416 1128779851</internalNodes>
          <leafValues>
            -5.7841432094573975e-01 4.5478972792625427e-01</leafValues></_>
        <_>
          <internalNodes>
            0 -1 165 -5509186 -289424658 -1355092301 2146073341
            1312464782 -807862402 1065910207 -543211613</internalNodes>
          <leafValues>
            -4.0183436870574951e-01 6.8957692384719849e-01</leafValues></_>
        <_>
          <internalNodes>
            0 -1 59 1212385727 1157693456 327963 1958838561 403824809
            1879048450 302067721 -1113619806</internalNodes>
          <leafValues>
            -4.8929548263549805e-01 5.2634954452514648e-01</leafValues></_>
        <_>
          <internalNodes>
            0 -1 174 1073840403 -796819387 16777233 -792625132
            1074139666 -931102591 1073971595 -1383321563</internalNodes>
          <leafValues>
            -5.4042303562164307e-01 4.8891639709472656e-01</leafValues></_>
        <_>
          <internalNodes>
            0 -1 36 -204849 1944420308 1878916820 332328791 -1135607849
            79986517 -1094386746 -738763355</internalNodes>
          <leafValues>
            -4.3276551365852356e-01 6.0750865936279297e-01</leafValues></_></weakClassifiers></_>
    <!-- stage 26 -->
    <_>
      <maxWeakCount>9</maxWeakCount>
      <stageThreshold>-5.7013535499572754e-01</stageThreshold>
      <weakClassifiers>
        <_>
          <internalNodes>
            0 -1 194 -1342210053 -1342177302 -1426084053 586923963
            1040138219 1560280831 -1107296260 -2044543745</internalNodes>
          <leafValues>
            -4.7257384657859802e-01 5.5417406558990479e-01</leafValues></_>
        <_>
          <internalNodes>
            0 -1 207 -819519167 -33685521 1073577839 -1788146057
            -1993548959 1054236666 779407178 -312094921</internalNodes>
          <leafValues>
            -3.8789975643157959e-01 5.9475225210189819e-01</leafValues></_>
        <_>
          <internalNodes>
            0 -1 117 1508580131 1342476803 400 269812867 -511631342
            4231170 -922675070 1533315075</internalNodes>
          <leafValues>
            -5.9205621480941772e-01 4.3262997269630432e-01</leafValues></_>
        <_>
          <internalNodes>
            0 -1 25 217967739 1283862494 -276824324 70299448 838729583
            335413237 -136708417 -600365578</internalNodes>
          <leafValues>
            -4.4491288065910339e-01 5.8433210849761963e-01</leafValues></_>
        <_>
          <internalNodes>
            0 -1 159 1079071230 421167828 269537408 193102020 546685065
            9437433 -2146926445 -1702788981</internalNodes>
          <leafValues>
            -5.9922868013381958e-01 4.5025202631950378e-01</leafValues></_>
        <_>
          <internalNodes>
            0 -1 182 -770321948 340821138 8405636 1560313856 1090566354
            -2113404928 1082134783 1364402834</internalNodes>
          <leafValues>
            -5.8527731895446777e-01 4.6383416652679443e-01</leafValues></_>
        <_>
          <internalNodes>
            0 -1 176 -341082193 -17879256 -4194306 -218431555 -3
            -285212689 536860661 -12961857</internalNodes>
          <leafValues>
            -4.1296470165252686e-01 7.2403466701507568e-01</leafValues></_>
        <_>
          <internalNodes>
            0 -1 180 1089137322 -805306369 -17041551 -285212673
            1450746432 -268439563 56026110 -1610623626</internalNodes>
          <leafValues>
            -4.8282513022422791e-01 5.9295046329498291e-01</leafValues></_>
        <_>
          <internalNodes>
            0 -1 228 -1258163632 1418543300 1476526080 -2147122915
            -1040087864 1610613890 -2113232726 268681354</internalNodes>
          <leafValues>
            -6.7559438943862915e-01 4.2749857902526855e-01</leafValues></_></weakClassifiers></_>
    <!-- stage 27 -->
    <_>
      <maxWeakCount>9</maxWeakCount>
      <stageThreshold>-8.5992819070816040e-01</stageThreshold>
      <weakClassifiers>
        <_>
          <internalNodes>
            0 -1 138 1351340341 1895895055 4231 1354760777 169181188
            405471491 1082204211 406743304</internalNodes>
          <leafValues>
            -5.6122446060180664e-01 5.1324504613876343e-01</leafValues></_>
        <_>
          <internalNodes>
            0 -1 52 -1878826184 -1877999615 134220817 65553 -1610575619
            -2030008757 54560937 285853851</internalNodes>
          <leafValues>
            -6.3823562860488892e-01 4.0510129928588867e-01</leafValues></_>
        <_>
          <internalNodes>
            0 -1 240 -658071124 -795508606 32841 -1325232106 -536297336
            411115552 -2104459125 287899722</internalNodes>
          <leafValues>
            -5.2265363931655884e-01 5.1113498210906982e-01</leafValues></_>
        <_>
          <internalNodes>
            0 -1 15 -2063695449 -2112716798 131088 872677632 1427226774
            -1744781312 -1040054270 -1027120885</internalNodes>
          <leafValues>
            -5.6472206115722656e-01 4.5228338241577148e-01</leafValues></_>
        <_>
          <internalNodes>
            0 -1 104 1879415253 -2045771495 335577154 1343529284
            -485371476 -1605369599 -1860021877 -2125429199</internalNodes>
          <leafValues>
            -5.4203110933303833e-01 4.8057332634925842e-01</leafValues></_>
        <_>
          <internalNodes>
            0 -1 31 -1576945656 -486407549 536969472 -575078399
            -1593306955 -1064304640 -1549758343 553717773</internalNodes>
          <leafValues>
            -6.9452363252639771e-01 3.6996552348136902e-01</leafValues></_>
        <_>
          <internalNodes>
            0 -1 98 -1069251121 1064977 -1073671159 67117072 -1962700647
            -794755072 268959835 1896480803</internalNodes>
          <leafValues>
            -5.9347373247146606e-01 4.7590932250022888e-01</leafValues></_>
        <_>
          <internalNodes>
            0 -1 128 -691646137 -1274542077 268534093 1275921415
            138447778 822083584 50663947 -1071021437</internalNodes>
          <leafValues>
            -5.2266860008239746e-01 5.7654446363449097e-01</leafValues></_>
        <_>
          <internalNodes>
            0 -1 124 1660941997 -1435500837 721178185 933592615
            1719500489 -103715681 1065351166 -1115742339</internalNodes>
          <leafValues>
            -3.3713069558143616e-01 7.9930436611175537e-01</leafValues></_></weakClassifiers></_>
    <!-- stage 28 -->
    <_>
      <maxWeakCount>7</maxWeakCount>
      <stageThreshold>-7.7211391925811768e-01</stageThreshold>
      <weakClassifiers>
        <_>
          <internalNodes>
            0 -1 71 -2130705803 1056787 213087 822149187 -2146954391
            -2147483519 831068160 -1336403936</internalNodes>
          <leafValues>
            -5.7951480150222778e-01 5.0040686130523682e-01</leafValues></_>
        <_>
          <internalNodes>
            0 -1 34 1475171419 1424261119 -16912483 207650630 2046729715
            803176447 2147379063 -364366265</internalNodes>
          <leafValues>
            -4.4988492131233215e-01 5.8880579471588135e-01</leafValues></_>
        <_>
          <internalNodes>
            0 -1 84 1275106116 -1811906555 184549378 -1157037471
            -918183933 -1425669374 -224034685 732142083</internalNodes>
          <leafValues>
            -4.6095165610313416e-01 5.5460560321807861e-01</leafValues></_>
        <_>
          <internalNodes>
            0 -1 230 276976836 269688848 285213805 1352732939
            -1820196480 -1165746168 537696394 2070104089</internalNodes>
          <leafValues>
            -6.3028365373611450e-01 4.1789776086807251e-01</leafValues></_>
        <_>
          <internalNodes>
            0 -1 225 -1794997629 -1946156773 1090519313 486608897
            1124139649 1342767240 -1072953280 -2041757559</internalNodes>
          <leafValues>
            -5.6689429283142090e-01 4.8058786988258362e-01</leafValues></_>
        <_>
          <internalNodes>
            0 -1 81 1419325526 1090797828 570458144 1698758720
            -1342160253 673194512 545337507 963412160</internalNodes>
          <leafValues>
            -6.3563138246536255e-01 4.0354132652282715e-01</leafValues></_>
        <_>
          <internalNodes>
            0 -1 119 1561609138 1360625668 151519749 998277124
            -788029295 1474640 687866458 1495703565</internalNodes>
          <leafValues>
            -5.8219015598297119e-01 4.6487393975257874e-01</leafValues></_></weakClassifiers></_>
    <!-- stage 29 -->
    <_>
      <maxWeakCount>8</maxWeakCount>
      <stageThreshold>-9.2144572734832764e-01</stageThreshold>
      <weakClassifiers>
        <_>
          <internalNodes>
            0 -1 115 -295194893 782794749 1862270967 1828632319
            -1351288835 99287039 133520759 1162010623</internalNodes>
          <leafValues>
            -4.2095237970352173e-01 5.7767438888549805e-01</leafValues></_>
        <_>
          <internalNodes>
            0 -1 3 173247127 -2078879483 -2130620396 1570079123
            -2147377014 18907168 -528121462 -691830621</internalNodes>
          <leafValues>
            -4.4497442245483398e-01 5.3432774543762207e-01</leafValues></_>
        <_>
          <internalNodes>
            0 -1 47 337084733 26247381 16818508 760086546 -1073741771
            -1605885432 100860234 1199079947</internalNodes>
          <leafValues>
            -5.2106565237045288e-01 4.5771563053131104e-01</leafValues></_>
        <_>
          <internalNodes>
            0 -1 90 84487919 -1230110721 -671836379 -377914401
            -1512271929 -1351614481 1152683791 -2055500321</internalNodes>
          <leafValues>
            -4.1311812400817871e-01 5.6727826595306396e-01</leafValues></_>
        <_>
          <internalNodes>
            0 -1 83 -1520342685 1525595750 -1342605705 -537153626
            -713198238 -558008370 -160962918 -907266268</internalNodes>
          <leafValues>
            -4.2852076888084412e-01 6.1262881755828857e-01</leafValues></_>
        <_>
          <internalNodes>
            0 -1 237 -230818403 779066462 -16811148 -177045637
            -537395395 -83984516 798259922 -1590073475</internalNodes>
          <leafValues>
            -4.0134689211845398e-01 6.2186455726623535e-01</leafValues></_>
        <_>
          <internalNodes>
            0 -1 153 827746518 -2063392634 -1879048192 -788430847
            -1253404122 167903232 1073776778 103485579</internalNodes>
          <leafValues>
            -8.2439833879470825e-01 3.5646051168441772e-01</leafValues></_>
        <_>
          <internalNodes>
            0 -1 199 1819279263 2146336293 -553687129 -433455475
            -981643554 1573814255 2111823720 -1087750532</internalNodes>
          <leafValues>
            -4.8562681674957275e-01 5.9096831083297729e-01</leafValues></_></weakClassifiers></_>
    <!-- stage 30 -->
    <_>
      <maxWeakCount>10</maxWeakCount>
      <stageThreshold>-1.0843104124069214e+00</stageThreshold>
      <weakClassifiers>
        <_>
          <internalNodes>
            0 -1 0 -1966941086 -1413566530 -268632066 884772846
            -406978570 -151191553 -538077830 -949809422</internalNodes>
          <leafValues>
            -2.9032257199287415e-01 5.9183675050735474e-01</leafValues></_>
        <_>
          <internalNodes>
            0 -1 202 -1121587215 1014709804 714090001 926596153
            -356783195 -85282900 1854317455 1781874606</internalNodes>
          <leafValues>
            -3.7082302570343018e-01 5.7101213932037354e-01</leafValues></_>
        <_>
          <internalNodes>
            0 -1 121 1797866407 -1061659 1785619051 334862085
            -1075908664 -1124401288 -1409417317 2126339855</internalNodes>
          <leafValues>
            -3.5029256343841553e-01 5.6282562017440796e-01</leafValues></_>
        <_>
          <internalNodes>
            0 -1 106 1403095224 -79494525 -2147344316 -196673536
            1107362306 -1429143520 -1062894910 -1817730934</internalNodes>
          <leafValues>
            -4.5577871799468994e-01 4.8131975531578064e-01</leafValues></_>
        <_>
          <internalNodes>
            0 -1 17 -771120896 184631425 -2129980416 -132537472
            -938278726 1096073257 -1388214135 935665961</internalNodes>
          <leafValues>
            -5.1447254419326782e-01 4.5167133212089539e-01</leafValues></_>
        <_>
          <internalNodes>
            0 -1 64 -469563030 1140921104 -1589638958 -1515151103
            -1870626360 -1594748928 704798908 1523221704</internalNodes>
          <leafValues>
            -6.2551850080490112e-01 3.3342856168746948e-01</leafValues></_>
        <_>
          <internalNodes>
            0 -1 214 -1000386469 -2126446335 -1862139883 1011945885
            -2147254254 -1426063360 427854480 -653637118</internalNodes>
          <leafValues>
            -4.9172744154930115e-01 4.9240601062774658e-01</leafValues></_>
        <_>
          <internalNodes>
            0 -1 57 1358981537 1342218755 32777 939537027 -2113915871
            -2013265399 -1342048012 33729578</internalNodes>
          <leafValues>
            -5.3823578357696533e-01 4.9540597200393677e-01</leafValues></_>
        <_>
          <internalNodes>
            0 -1 156 1409405264 1569915136 -2147483512 -1039069168
            134217858 -1073708928 147 -1777940469</internalNodes>
          <leafValues>
            -6.6264355182647705e-01 3.5465484857559204e-01</leafValues></_>
        <_>
          <internalNodes>
            0 -1 198 1342362935 1432387593 66563 520135440 -2147450744
            278560778 554474202 155746504</internalNodes>
          <leafValues>
            -6.2152868509292603e-01 4.1895201802253723e-01</leafValues></_></weakClassifiers></_>
    <!-- stage 31 -->
    <_>
      <maxWeakCount>8</maxWeakCount>
      <stageThreshold>-6.5806233882904053e-01</stageThreshold>
      <weakClassifiers>
        <_>
          <internalNodes>
            0 -1 27 1649735455 -1870661665 805303884 707722912 268697519
            -314574720 99606600 665646613</internalNodes>
          <leafValues>
            -4.3487858772277832e-01 5.2048820257186890e-01</leafValues></_>
        <_>
          <internalNodes>
            0 -1 3 1322356359 191950637 -1694810113 499068925 1459285987
            268300287 -134765106 -583817</internalNodes>
          <leafValues>
            -3.6657842993736267e-01 5.5802392959594727e-01</leafValues></_>
        <_>
          <internalNodes>
            0 -1 209 512726965 -1078001934 -1614823502 -1080099281
            -1884479718 -268566530 1293721574 -985062945</internalNodes>
          <leafValues>
            -3.7451213598251343e-01 5.6210750341415405e-01</leafValues></_>
        <_>
          <internalNodes>
            0 -1 168 -285352731 -93421569 -1342177288 -629178499
            939524037 -1787330569 502790141 -579356705</internalNodes>
          <leafValues>
            -2.7387231588363647e-01 7.5192040205001831e-01</leafValues></_>
        <_>
          <internalNodes>
            0 -1 120 -1611665457 -89150741 1718775411 1874112483
            -1347637885 -1113915457 -551968769 -1147695335</internalNodes>
          <leafValues>
            -3.2875415682792664e-01 6.6958719491958618e-01</leafValues></_>
        <_>
          <internalNodes>
            0 -1 94 1503168978 -570695705 -214828317 -247726348
            -816259163 -539754531 2104940506 -1013207599</internalNodes>
          <leafValues>
            -4.2986136674880981e-01 5.2024030685424805e-01</leafValues></_>
        <_>
          <internalNodes>
            0 -1 126 -1071168425 723271680 18688 1476526219 -2088583013
            -402063360 -1576074485 274900994</internalNodes>
          <leafValues>
            -5.2031564712524414e-01 4.9435925483703613e-01</leafValues></_>
        <_>
          <internalNodes>
            0 -1 40 5440766 647004355 16702 353914928 102496 1075314816
            1124202627 748060771</internalNodes>
          <leafValues>
            -7.4587851762771606e-01 3.2300013303756714e-01</leafValues></_></weakClassifiers></_>
    <!-- stage 32 -->
    <_>
      <maxWeakCount>8</maxWeakCount>
      <stageThreshold>-5.0344479084014893e-01</stageThreshold>
      <weakClassifiers>
        <_>
          <internalNodes>
            0 -1 234 1814255310 1497202510 2062318916 375281639
            2105327896 -166161655 89185738 1779089818</internalNodes>
          <leafValues>
            -4.6379646658897400e-01 5.8494031429290771e-01</leafValues></_>
        <_>
          <internalNodes>
            0 -1 145 1077621249 -1624293592 -1090648139 -545282265
            892818355 -1673828523 1727260465 -875297748</internalNodes>
          <leafValues>
            -3.9923471212387085e-01 6.5805351734161377e-01</leafValues></_>
        <_>
          <internalNodes>
            0 -1 92 1459786201 1500250087 -214207773 -1221493004
            -853921855 -816579169 1397997531 980362635</internalNodes>
          <leafValues>
            -3.8115018606185913e-01 6.6974568367004395e-01</leafValues></_>
        <_>
          <internalNodes>
            0 -1 21 -668278795 163105778 -17338370 201403128 786313079
            -1971388423 805240828 -1853954309</internalNodes>
          <leafValues>
            -3.9570447802543640e-01 6.9056302309036255e-01</leafValues></_>
        <_>
          <internalNodes>
            0 -1 136 -1860975474 -2147385340 229400 16826629 1613438976
            312475650 -2130706271 294084651</internalNodes>
          <leafValues>
            -6.4032095670700073e-01 4.4867762923240662e-01</leafValues></_>
        <_>
          <internalNodes>
            0 -1 44 271626899 -377505160 -1114130 -16777217 -1166180392
            -1249083584 -1493281396 -2056896515</internalNodes>
          <leafValues>
            -4.5998704433441162e-01 6.8376153707504272e-01</leafValues></_>
        <_>
          <internalNodes>
            0 -1 231 1949059646 2054585839 1073479120 -1015841090
            1870135141 1993736191 2113320891 -2143357601</internalNodes>
          <leafValues>
            -4.4749307632446289e-01 6.8735456466674805e-01</leafValues></_>
        <_>
          <internalNodes>
            0 -1 191 1409359963 419956993 268439553 1762198017
            -1879047805 570425472 -2126511741 -2082922493</internalNodes>
          <leafValues>
            -4.7267875075340271e-01 6.1730831861495972e-01</leafValues></_></weakClassifiers></_></stages>
  <features>
    <_>
      <rect>
        0 0 2 13</rect></_>
    <_>
      <rect>
        0 0 3 7</rect></_>
    <_>
      <rect>
        0 0 3 12</rect></_>
    <_>
      <rect>
        0 0 4 5</rect></_>
    <_>
      <rect>
        0 0 5 6</rect></_>
    <_>
      <rect>
        0 0 7 4</rect></_>
    <_>
      <rect>
        0 0 7 6</rect></_>
    <_>
      <rect>
        0 0 10 10</rect></_>
    <_>
      <rect>
        0 0 11 13</rect></_>
    <_>
      <rect>
        0 1 4 13</rect></_>
    <_>
      <rect>
        0 1 11 7</rect></_>
    <_>
      <rect>
        0 2 10 12</rect></_>
    <_>
      <rect>
        0 3 10 10</rect></_>
    <_>
      <rect>
        0 4 9 8</rect></_>
    <_>
      <rect>
        0 4 13 8</rect></_>
    <_>
      <rect>
        0 5 3 8</rect></_>
    <_>
      <rect>
        0 6 3 3</rect></_>
    <_>
      <rect>
        0 6 13 11</rect></_>
    <_>
      <rect>
        0 10 3 7</rect></_>
    <_>
      <rect>
        0 11 3 3</rect></_>
    <_>
      <rect>
        0 11 3 7</rect></_>
    <_>
      <rect>
        0 12 2 5</rect></_>
    <_>
      <rect>
        0 12 10 9</rect></_>
    <_>
      <rect>
        0 13 6 7</rect></_>
    <_>
      <rect>
        0 14 3 8</rect></_>
    <_>
      <rect>
        0 16 2 4</rect></_>
    <_>
      <rect>
        0 18 7 3</rect></_>
    <_>
      <rect>
        0 21 6 4</rect></_>
    <_>
      <rect>
        0 24 2 2</rect></_>
    <_>
      <rect>
        0 28 8 4</rect></_>
    <_>
      <rect>
        1 0 3 8</rect></_>
    <_>
      <rect>
        1 0 13 13</rect></_>
    <_>
      <rect>
        1 19 3 3</rect></_>
    <_>
      <rect>
        1 19 4 2</rect></_>
    <_>
      <rect>
        1 25 3 5</rect></_>
    <_>
      <rect>
        1 30 4 3</rect></_>
    <_>
      <rect>
        2 10 12 8</rect></_>
    <_>
      <rect>
        2 13 6 8</rect></_>
    <_>
      <rect>
        2 28 4 4</rect></_>
    <_>
      <rect>
        3 0 8 6</rect></_>
    <_>
      <rect>
        3 9 3 2</rect></_>
    <_>
      <rect>
        3 11 5 4</rect></_>
    <_>
      <rect>
        3 12 9 7</rect></_>
    <_>
      <rect>
        3 19 4 2</rect></_>
    <_>
      <rect>
        3 19 11 7</rect></_>
    <_>
      <rect>
        3 23 9 5</rect></_>
    <_>
      <rect>
        4 0 8 11</rect></_>
    <_>
      <rect>
        4 6 5 4</rect></_>
    <_>
      <rect>
        4 7 9 11</rect></_>
    <_>
      <rect>
        4 7 11 11</rect></_>
    <_>
      <rect>
        4 8 11 10</rect></_>
    <_>
      <rect>
        4 13 10 9</rect></_>
    <_>
      <rect>
        4 14 9 6</rect></_>
    <_>
      <rect>
        4 15 4 2</rect></_>
    <_>
      <rect>
        4 17 4 2</rect></_>
    <_>
      <rect>
        4 18 3 4</rect></_>
    <_>
      <rect>
        5 0 6 6</rect></_>
    <_>
      <rect>
        5 6 7 9</rect></_>
    <_>
      <rect>
        5 14 9 5</rect></_>
    <_>
      <rect>
        5 18 5 4</rect></_>
    <_>
      <rect>
        5 19 4 3</rect></_>
    <_>
      <rect>
        5 20 3 2</rect></_>
    <_>
      <rect>
        5 23 2 2</rect></_>
    <_>
      <rect>
        6 8 5 6</rect></_>
    <_>
      <rect>
        6 12 3 2</rect></_>
    <_>
      <rect>
        6 16 3 2</rect></_>
    <_>
      <rect>
        6 21 3 3</rect></_>
    <_>
      <rect>
        6 22 1 2</rect></_>
    <_>
      <rect>
        6 24 4 1</rect></_>
    <_>
      <rect>
        7 9 1 1</rect></_>
    <_>
      <rect>
        7 11 2 1</rect></_>
    <_>
      <rect>
        7 11 4 5</rect></_>
    <_>
      <rect>
        7 13 6 3</rect></_>
    <_>
      <rect>
        7 22 11 6</rect></_>
    <_>
      <rect>
        7 25 10 5</rect></_>
    <_>
      <rect>
        8 0 9 10</rect></_>
    <_>
      <rect>
        8 10 1 1</rect></_>
    <_>
      <rect>
        8 11 8 6</rect></_>
    <_>
      <rect>
        8 17 4 2</rect></_>
    <_>
      <rect>
        8 18 3 2</rect></_>
    <_>
      <rect>
        8 18 4 1</rect></_>
    <_>
      <rect>
        8 21 8 5</rect></_>
    <_>
      <rect>
        8 24 4 2</rect></_>
    <_>
      <rect>
        9 0 10 2</rect></_>
    <_>
      <rect>
        9 3 10 12</rect></_>
    <_>
      <rect>
        9 5 8 4</rect></_>
    <_>
      <rect>
        9 12 3 3</rect></_>
    <_>
      <rect>
        9 20 4 3</rect></_>
    <_>
      <rect>
        9 25 7 5</rect></_>
    <_>
      <rect>
        10 0 10 11</rect></_>
    <_>
      <rect>
        10 1 9 12</rect></_>
    <_>
      <rect>
        10 1 10 8</rect></_>
    <_>
      <rect>
        10 1 10 10</rect></_>
    <_>
      <rect>
        10 1 10 13</rect></_>
    <_>
      <rect>
        10 2 10 9</rect></_>
    <_>
      <rect>
        10 5 10 8</rect></_>
    <_>
      <rect>
        10 10 10 9</rect></_>
    <_>
      <rect>
        10 13 10 6</rect></_>
    <_>
      <rect>
        10 22 4 2</rect></_>
    <_>
      <rect>
        10 25 10 5</rect></_>
    <_>
      <rect>
        11 11 3 3</rect></_>
    <_>
      <rect>
        11 12 9 8</rect></_>
    <_>
      <rect>
        11 14 6 3</rect></_>
    <_>
      <rect>
        11 15 5 4</rect></_>
    <_>
      <rect>
        11 25 5 5</rect></_>
    <_>
      <rect>
        12 0 6 5</rect></_>
    <_>
      <rect>
        12 0 8 12</rect></_>
    <_>
      <rect>
        12 1 9 11</rect></_>
    <_>
      <rect>
        12 10 8 9</rect></_>
    <_>
      <rect>
        12 11 3 2</rect></_>
    <_>
      <rect>
        12 17 7 4</rect></_>
    <_>
      <rect>
        12 19 8 7</rect></_>
    <_>
      <rect>
        12 19 9 6</rect></_>
    <_>
      <rect>
        12 21 9 5</rect></_>
    <_>
      <rect>
        12 24 1 1</rect></_>
    <_>
      <rect>
        12 24 3 3</rect></_>
    <_>
      <rect>
        13 0 9 13</rect></_>
    <_>
      <rect>
        13 7 1 2</rect></_>
    <_>
      <rect>
        13 9 3 2</rect></_>
    <_>
      <rect>
        13 9 9 10</rect></_>
    <_>
      <rect>
        13 10 9 8</rect></_>
    <_>
      <rect>
        13 15 9 7</rect></_>
    <_>
      <rect>
        13 19 4 7</rect></_>
    <_>
      <rect>
        13 21 4 5</rect></_>
    <_>
      <rect>
        13 21 9 5</rect></_>
    <_>
      <rect>
        13 22 3 2</rect></_>
    <_>
      <rect>
        13 23 3 4</rect></_>
    <_>
      <rect>
        13 24 1 1</rect></_>
    <_>
      <rect>
        14 0 6 6</rect></_>
    <_>
      <rect>
        14 0 6 12</rect></_>
    <_>
      <rect>
        14 8 4 3</rect></_>
    <_>
      <rect>
        14 11 1 1</rect></_>
    <_>
      <rect>
        14 13 8 7</rect></_>
    <_>
      <rect>
        14 13 8 9</rect></_>
    <_>
      <rect>
        14 17 4 5</rect></_>
    <_>
      <rect>
        14 23 5 4</rect></_>
    <_>
      <rect>
        14 32 1 1</rect></_>
    <_>
      <rect>
        15 9 6 4</rect></_>
    <_>
      <rect>
        15 11 2 2</rect></_>
    <_>
      <rect>
        15 13 4 3</rect></_>
    <_>
      <rect>
        15 13 5 8</rect></_>
    <_>
      <rect>
        15 13 7 4</rect></_>
    <_>
      <rect>
        15 14 3 2</rect></_>
    <_>
      <rect>
        15 14 6 5</rect></_>
    <_>
      <rect>
        15 22 2 3</rect></_>
    <_>
      <rect>
        16 0 5 3</rect></_>
    <_>
      <rect>
        16 0 6 6</rect></_>
    <_>
      <rect>
        16 8 4 3</rect></_>
    <_>
      <rect>
        16 9 8 10</rect></_>
    <_>
      <rect>
        16 11 2 2</rect></_>
    <_>
      <rect>
        16 11 2 3</rect></_>
    <_>
      <rect>
        16 12 3 2</rect></_>
    <_>
      <rect>
        16 16 2 2</rect></_>
    <_>
      <rect>
        16 16 4 5</rect></_>
    <_>
      <rect>
        16 17 2 2</rect></_>
    <_>
      <rect>
        16 18 3 3</rect></_>
    <_>
      <rect>
        16 18 6 1</rect></_>
    <_>
      <rect>
        16 19 3 7</rect></_>
    <_>
      <rect>
        16 19 4 3</rect></_>
    <_>
      <rect>
        16 19 7 4</rect></_>
    <_>
      <rect>
        16 20 4 5</rect></_>
    <_>
      <rect>
        17 0 7 12</rect></_>
    <_>
      <rect>
        17 6 2 7</rect></_>
    <_>
      <rect>
        17 9 5 6</rect></_>
    <_>
      <rect>
        17 10 4 4</rect></_>
    <_>
      <rect>
        17 11 7 7</rect></_>
    <_>
      <rect>
        17 13 2 3</rect></_>
    <_>
      <rect>
        17 17 7 5</rect></_>
    <_>
      <rect>
        17 18 2 2</rect></_>
    <_>
      <rect>
        17 18 5 2</rect></_>
    <_>
      <rect>
        17 19 2 2</rect></_>
    <_>
      <rect>
        17 19 3 5</rect></_>
    <_>
      <rect>
        17 21 6 4</rect></_>
    <_>
      <rect>
        18 12 4 3</rect></_>
    <_>
      <rect>
        18 13 2 3</rect></_>
    <_>
      <rect>
        18 16 1 2</rect></_>
    <_>
      <rect>
        18 17 3 2</rect></_>
    <_>
      <rect>
        18 18 1 1</rect></_>
    <_>
      <rect>
        18 18 6 6</rect></_>
    <_>
      <rect>
        18 19 1 1</rect></_>
    <_>
      <rect>
        18 20 1 1</rect></_>
    <_>
      <rect>
        18 21 4 4</rect></_>
    <_>
      <rect>
        18 32 1 1</rect></_>
    <_>
      <rect>
        19 3 6 5</rect></_>
    <_>
      <rect>
        19 9 6 7</rect></_>
    <_>
      <rect>
        19 12 1 3</rect></_>
    <_>
      <rect>
        19 13 7 8</rect></_>
    <_>
      <rect>
        19 15 4 4</rect></_>
    <_>
      <rect>
        19 17 3 2</rect></_>
    <_>
      <rect>
        19 18 4 4</rect></_>
    <_>
      <rect>
        19 18 5 2</rect></_>
    <_>
      <rect>
        20 4 5 4</rect></_>
    <_>
      <rect>
        20 15 3 2</rect></_>
    <_>
      <rect>
        20 15 6 3</rect></_>
    <_>
      <rect>
        20 17 5 2</rect></_>
    <_>
      <rect>
        20 17 5 4</rect></_>
    <_>
      <rect>
        20 18 4 3</rect></_>
    <_>
      <rect>
        20 23 3 4</rect></_>
    <_>
      <rect>
        20 23 4 4</rect></_>
    <_>
      <rect>
        20 26 6 4</rect></_>
    <_>
      <rect>
        21 10 2 2</rect></_>
    <_>
      <rect>
        21 11 3 4</rect></_>
    <_>
      <rect>
        21 14 6 6</rect></_>
    <_>
      <rect>
        21 15 6 4</rect></_>
    <_>
      <rect>
        21 25 4 3</rect></_>
    <_>
      <rect>
        21 25 4 5</rect></_>
    <_>
      <rect>
        21 28 6 4</rect></_>
    <_>
      <rect>
        22 0 6 6</rect></_>
    <_>
      <rect>
        22 2 6 5</rect></_>
    <_>
      <rect>
        22 6 5 7</rect></_>
    <_>
      <rect>
        22 11 2 2</rect></_>
    <_>
      <rect>
        22 13 4 7</rect></_>
    <_>
      <rect>
        22 26 2 3</rect></_>
    <_>
      <rect>
        23 16 3 3</rect></_>
    <_>
      <rect>
        23 16 4 2</rect></_>
    <_>
      <rect>
        23 17 3 2</rect></_>
    <_>
      <rect>
        23 25 5 3</rect></_>
    <_>
      <rect>
        23 27 1 1</rect></_>
    <_>
      <rect>
        24 15 2 2</rect></_>
    <_>
      <rect>
        24 15 4 5</rect></_>
    <_>
      <rect>
        24 21 3 2</rect></_>
    <_>
      <rect>
        24 23 3 3</rect></_>
    <_>
      <rect>
        25 6 5 7</rect></_>
    <_>
      <rect>
        25 24 2 2</rect></_>
    <_>
      <rect>
        25 28 1 1</rect></_>
    <_>
      <rect>
        25 28 5 4</rect></_>
    <_>
      <rect>
        26 19 3 2</rect></_>
    <_>
      <rect>
        26 21 2 1</rect></_>
    <_>
      <rect>
        26 25 1 1</rect></_>
    <_>
      <rect>
        27 22 2 1</rect></_>
    <_>
      <rect>
        27 24 2 1</rect></_>
    <_>
      <rect>
        28 1 4 3</rect></_>
    <_>
      <rect>
        28 23 2 1</rect></_>
    <_>
      <rect>
        29 24 2 1</rect></_>
    <_>
      <rect>
        30 25 1 1</rect></_>
    <_>
      <rect>
        31 3 3 9</rect></_>
    <_>
      <rect>
        31 10 1 1</rect></_>
    <_>
      <rect>
        31 12 3 5</rect></_>
    <_>
      <rect>
        31 13 3 9</rect></_>
    <_>
      <rect>
        31 18 3 7</rect></_>
    <_>
      <rect>
        34 19 1 1</rect></_></features></cascade>
</opencv_storage>
